/*
 * Copyright (c) 2026 EdgeImpulse Inc.
 *
 * Generated by Edge Impulse and licensed under the applicable Edge Impulse
 * Terms of Service. Community and Professional Terms of Service
 * (https://edgeimpulse.com/legal/terms-of-service) or Enterprise Terms of
 * Service (https://edgeimpulse.com/legal/enterprise-terms-of-service),
 * according to your product plan subscription (the “License”).
 *
 * This software, documentation and other associated files (collectively referred
 * to as the “Software”) is a single SDK variation generated by the Edge Impulse
 * platform and requires an active paid Edge Impulse subscription to use this
 * Software for any purpose.
 *
 * You may NOT use this Software unless you have an active Edge Impulse subscription
 * that meets the eligibility requirements for the applicable License, subject to
 * your full and continued compliance with the terms and conditions of the License,
 * including without limitation any usage restrictions under the applicable License.
 *
 * If you do not have an active Edge Impulse product plan subscription, or if use
 * of this Software exceeds the usage limitations of your Edge Impulse product plan
 * subscription, you are not permitted to use this Software and must immediately
 * delete and erase all copies of this Software within your control or possession.
 * Edge Impulse reserves all rights and remedies available to enforce its rights.
 *
 * Unless required by applicable law or agreed to in writing, the Software is
 * distributed on an "AS IS" BASIS, WITHOUT WARRANTIES OR CONDITIONS OF ANY KIND,
 * either express or implied. See the License for the specific language governing
 * permissions, disclaimers and limitations under the License.
 */
// Generated on: 14.07.2026 11:30:20

#include <stdio.h>
#include <stdlib.h>
#include "edge-impulse-sdk/tensorflow/lite/c/builtin_op_data.h"
#include "edge-impulse-sdk/tensorflow/lite/c/common.h"
#include "edge-impulse-sdk/tensorflow/lite/micro/micro_mutable_op_resolver.h"
#include "edge-impulse-sdk/porting/ei_classifier_porting.h"

#if EI_CLASSIFIER_PRINT_STATE
#if defined(__cplusplus) && EI_C_LINKAGE == 1
extern "C" {
    extern void ei_printf(const char *format, ...);
}
#else
extern void ei_printf(const char *format, ...);
#endif
#endif

#define STRINGIZE(x) #x
#define STRINGIZE_VALUE_OF(x) STRINGIZE(x)

#if defined (__GNUC__)  /* GNU compiler */
#define ALIGN(X) __attribute__((aligned(X)))
#define DEFINE_SECTION(x) __attribute__((section(x)))
#elif defined (_MSC_VER)
#define ALIGN(X) __declspec(align(X))
#elif defined (__TASKING__) /* TASKING Compiler */
#define ALIGN(X) __align(X)
#define DEFINE_SECTION(x) __attribute__((section(x)))
#elif defined (__ARMCC_VERSION) /* Arm Compiler */
#define ALIGN(X) __ALIGNED(x)
#define DEFINE_SECTION(x) __attribute__((section(x)))
#elif defined (__ICCARM__) /* IAR Compiler */
#define ALIGN(x) __attribute__((aligned(x)))
#define DEFINE_SECTION(x) __attribute__((section(x)))
#elif defined (__clang__) /* LLVM/Clang Compiler */
#define ALIGN(X) __ALIGNED(x)
#define DEFINE_SECTION(x) __attribute__((section(x)))
#endif

#if defined(EI_MODEL_SECTION) && (defined(__GNUC__) || defined(__clang__))
#define MODEL_SECTION(X) __attribute__((section(STRINGIZE_VALUE_OF(X))))
#else
#define MODEL_SECTION(X)
#endif

#ifndef EI_MAX_SCRATCH_BUFFER_COUNT
#ifndef CONFIG_IDF_TARGET_ESP32S3
#define EI_MAX_SCRATCH_BUFFER_COUNT 4
#else
#define EI_MAX_SCRATCH_BUFFER_COUNT 4
#endif // CONFIG_IDF_TARGET_ESP32S3
#endif // EI_MAX_SCRATCH_BUFFER_COUNT

#ifndef EI_MAX_OVERFLOW_BUFFER_COUNT
#define EI_MAX_OVERFLOW_BUFFER_COUNT 10
#endif // EI_MAX_OVERFLOW_BUFFER_COUNT

using namespace tflite;
using namespace tflite::ops;
using namespace tflite::ops::micro;

namespace {

#if defined(EI_CLASSIFIER_ALLOCATION_STATIC_HIMAX) || defined(EI_CLASSIFIER_ALLOCATION_STATIC_HIMAX_GNU)
constexpr int kTensorArenaSize = 6640;
#else
constexpr int kTensorArenaSize = 5616;
#endif

#if defined(EI_CLASSIFIER_ALLOCATION_STATIC)
#if defined (EI_TENSOR_ARENA_LOCATION)
uint8_t tensor_arena[kTensorArenaSize] ALIGN(16) DEFINE_SECTION(STRINGIZE_VALUE_OF(EI_TENSOR_ARENA_LOCATION));
#else
uint8_t tensor_arena[kTensorArenaSize] ALIGN(16);
#endif
#elif defined(EI_CLASSIFIER_ALLOCATION_STATIC_HIMAX)
#pragma Bss(".tensor_arena")
uint8_t tensor_arena[kTensorArenaSize] ALIGN(16);
#pragma Bss()
#elif defined(EI_CLASSIFIER_ALLOCATION_STATIC_HIMAX_GNU)
uint8_t tensor_arena[kTensorArenaSize] ALIGN(16) __attribute__((section(".tensor_arena")));
#else
#define EI_CLASSIFIER_ALLOCATION_HEAP 1
uint8_t* tensor_arena = NULL;
#endif

static uint8_t* tensor_boundary;
static uint8_t* current_location;

template <int SZ, class T> struct TfArray {
  int sz; T elem[SZ];
};

enum used_operators_e {
  OP_RESHAPE, OP_CONV_2D, OP_MAX_POOL_2D, OP_FULLY_CONNECTED, OP_SOFTMAX,  OP_LAST
};

struct TensorInfo_t { // subset of TfLiteTensor used for initialization from constant memory
  TfLiteAllocationType allocation_type;
  TfLiteType type;
  void* data;
  TfLiteIntArray* dims;
  size_t bytes;
};

typedef struct {
  TfLiteTensor tensor;
  int16_t index;
} TfLiteTensorWithIndex;

typedef struct {
  TfLiteEvalTensor tensor;
  int16_t index;
} TfLiteEvalTensorWithIndex;

TfLiteContext ctx{};
static const int MAX_TFL_TENSOR_COUNT = 4;
static TfLiteTensorWithIndex tflTensors[MAX_TFL_TENSOR_COUNT];
static const int MAX_TFL_EVAL_COUNT = 4;
static TfLiteEvalTensorWithIndex tflEvalTensors[MAX_TFL_EVAL_COUNT];
TfLiteRegistration registrations[OP_LAST];

namespace g0 {
const TfArray<2, int> tensor_dimension0 = { 2, { 1,650 } };
const MODEL_SECTION(EI_MODEL_SECTION) ALIGN(16) float tensor_data1[16] = { -0.27375373244285583, -0.21517787873744965, -0.095671474933624268, -0.094424940645694733, -0.17441456019878387, -0.064574360847473145, -0.17648561298847198, -0.53676527738571167, -0.023466918617486954, 0.029911460354924202, 0.053165879100561142, 0.71442604064941406, 0.29793763160705566, -0.065691672265529633, -0.10701233893632889, -0.10129079222679138, };
const TfArray<1, int> tensor_dimension1 = { 1, { 16 } };
const MODEL_SECTION(EI_MODEL_SECTION) ALIGN(16) float tensor_data2[8] = { -0.44381505250930786, -0.38921722769737244, -0.65036302804946899, -0.76294559240341187, -0.43655899167060852, -0.46159884333610535, -0.33566182851791382, -0.57632321119308472, };
const TfArray<1, int> tensor_dimension2 = { 1, { 8 } };
const MODEL_SECTION(EI_MODEL_SECTION) ALIGN(16) int32_t tensor_data3[4] = { 1, 25, 1, 16, };
const TfArray<1, int> tensor_dimension3 = { 1, { 4 } };
const MODEL_SECTION(EI_MODEL_SECTION) ALIGN(16) int32_t tensor_data4[4] = { 1, 1, 25, 8, };
const MODEL_SECTION(EI_MODEL_SECTION) ALIGN(16) int32_t tensor_data5[4] = { 1, 50, 1, 8, };
const MODEL_SECTION(EI_MODEL_SECTION) ALIGN(16) float tensor_data6[16*1*3*8] = { 
  /* [0][0][][] */ 0.0052203112281858921,-0.02085106261074543,0.34285169839859009,0.50499188899993896,-0.63904792070388794,-0.31346353888511658,-0.17218863964080811,0.070237219333648682, 0.031674522906541824,0.018517311662435532,0.00047350686509162188,0.061047837138175964,-0.50137734413146973,-0.20400518178939819,0.15650027990341187,-0.026579596102237701, 0.23710328340530396,0.030881505459547043,0.33834725618362427,0.27584165334701538,-0.57449799776077271,-0.20056323707103729,0.23564779758453369,-0.19628915190696716, 
  /* [1][0][][] */ 0.071378283202648163,0.30158716440200806,-0.067259900271892548,-0.18361860513687134,-0.26480501890182495,-0.17330929636955261,-0.21104370057582855,-0.10116561502218246, 0.045749668031930923,0.14693674445152283,-0.080949291586875916,-0.6673133373260498,0.1027311235666275,0.30683735013008118,0.032878298312425613,-0.095335423946380615, 0.38809368014335632,0.018434721976518631,0.35879918932914734,-0.71664053201675415,0.11462356895208359,-0.1501050591468811,0.10526405274868011,-0.22496862709522247, 
  /* [2][0][][] */ -0.15147528052330017,0.27557167410850525,-0.0035886021796613932,0.20789638161659241,-0.41349044442176819,-0.3445124626159668,0.29271519184112549,-0.17322389781475067, 0.26978608965873718,0.11559829860925674,0.048667300492525101,0.26283922791481018,-0.48617902398109436,-0.40725767612457275,0.15351217985153198,-0.24532188475131989, -0.079409033060073853,-0.0078806988894939423,0.38979852199554443,-0.012802177108824253,-0.4624001681804657,-0.32360771298408508,-0.011788517236709595,-0.14140881597995758, 
  /* [3][0][][] */ 0.23284424841403961,-0.2255009263753891,-0.17718586325645447,-0.0023874090984463692,0.021936111152172089,-0.45836111903190613,-0.36613023281097412,0.53026515245437622, 0.091873191297054291,-0.62825518846511841,-0.48984050750732422,0.15238390862941742,-0.11407303065061569,-0.3568589985370636,-0.42204713821411133,-0.053260885179042816, -0.0044390126131474972,-0.34748056530952454,-0.46316245198249817,0.20812459290027618,-0.048804279416799545,-0.12409256398677826,-0.44986233115196228,0.32842189073562622, 
  /* [4][0][][] */ -0.53555101156234741,0.0081373816356062889,-0.45113226771354675,-0.40108281373977661,-0.14682573080062866,0.22183321416378021,-0.059062313288450241,-0.33095645904541016, -0.64085716009140015,-0.16352900862693787,-0.264504075050354,-0.22364813089370728,-0.41127321124076843,0.28027015924453735,0.10463335365056992,-0.60985589027404785, -0.0036488752812147141,0.33627232909202576,-0.27855104207992554,0.052083078771829605,-0.43940636515617371,0.30074149370193481,0.25190302729606628,-0.5668182373046875, 
  /* [5][0][][] */ -0.32510411739349365,0.0096122492104768753,0.34325054287910461,-0.06195845827460289,-0.22548133134841919,-0.42137503623962402,-0.14221258461475372,0.21942931413650513, -0.36594030261039734,0.12682783603668213,-0.098882414400577545,-0.36720734834671021,-0.00030715225148014724,0.33699110150337219,-0.2523140013217926,-0.3537503182888031, -0.15436577796936035,0.57968741655349731,0.12745359539985657,-0.17924407124519348,0.0098764011636376381,-0.009356166236102581,-0.26300758123397827,0.2046993225812912, 
  /* [6][0][][] */ 0.42232006788253784,0.044858809560537338,0.18701797723770142,0.2386663556098938,-0.77297979593276978,-0.36145371198654175,-0.12903213500976562,-0.046594336628913879, 0.18293586373329163,-0.095042333006858826,0.34677252173423767,0.11034397035837173,-0.50893187522888184,-0.4372422993183136,-0.40110981464385986,0.13361403346061707, -0.095392011106014252,-0.084106944501399994,-0.13632409274578094,-0.04256775975227356,-0.19031493365764618,-0.34898623824119568,-0.57486015558242798,-0.0029420128557831049, 
  /* [7][0][][] */ -0.15489310026168823,0.022901376709342003,-0.28960046172142029,-0.40685164928436279,-0.11441370099782944,0.14446869492530823,0.023207981139421463,-0.096556834876537323, 0.2369929701089859,0.19570252299308777,0.036631729453802109,-0.33037668466567993,0.40096810460090637,-0.099866360425949097,0.15973834693431854,0.12541539967060089, 0.24515640735626221,-0.070740059018135071,-0.24726635217666626,-0.3508470356464386,-0.093496769666671753,0.13783319294452667,0.25933763384819031,-0.036443613469600677, 
  /* [8][0][][] */ 0.10319879651069641,-0.5538325309753418,-0.11082341521978378,0.13987210392951965,-0.14020061492919922,-0.21935640275478363,-0.26630228757858276,0.021430959925055504, -0.30791676044464111,-0.66211241483688354,-0.68511801958084106,0.18013744056224823,0.071595057845115662,-0.46419396996498108,-0.54408955574035645,0.46392053365707397, -0.11130721122026443,-0.72670692205429077,-0.34891736507415771,0.019171126186847687,-0.073771588504314423,0.010307620279490948,-0.45126038789749146,-0.029267411679029465, 
  /* [9][0][][] */ -0.10271310806274414,-0.25289368629455566,-0.054970752447843552,0.18513129651546478,-0.33488526940345764,0.017289061099290848,0.43410250544548035,0.24815133213996887, -0.3989865779876709,-0.4496874213218689,-0.46500793099403381,-0.32240539789199829,0.19670820236206055,-0.51861774921417236,-0.066097401082515717,-0.061197657138109207, -0.088654637336730957,-0.47068881988525391,-0.31734535098075867,-0.35498860478401184,-0.18671600520610809,-0.0015701086958870292,-0.12569920718669891,-0.062946029007434845, 
  /* [10][0][][] */ -0.41993796825408936,-0.38596752285957336,-0.31831693649291992,0.11130180209875107,-0.1278248131275177,-0.61285287141799927,-0.38954973220825195,0.19798922538757324, -0.67502307891845703,-0.32906082272529602,-0.31139013171195984,-0.036022253334522247,-0.16960695385932922,-0.070989958941936493,-0.61014896631240845,-0.039760082960128784, -0.20748881995677948,-0.095820888876914978,-0.31459364295005798,-0.0014229163061827421,-0.058510053902864456,0.38778647780418396,-0.53302651643753052,0.58701926469802856, 
  /* [11][0][][] */ -0.51609927415847778,-0.19229455292224884,-0.40479066967964172,0.074769102036952972,0.13928185403347015,-0.33191958069801331,-0.40132221579551697,-0.55973589420318604, -0.26031506061553955,-0.14866043627262115,-0.22633753716945648,-0.015856824815273285,0.40912479162216187,-0.18922790884971619,-0.41423386335372925,-0.43060135841369629, -0.576194167137146,-0.067584268748760223,-0.48144504427909851,-0.13872209191322327,-0.11130192130804062,-0.37777689099311829,-0.41114512085914612,-0.61857873201370239, 
  /* [12][0][][] */ -0.2073168009519577,0.048949252814054489,-0.12427627295255661,0.62414312362670898,0.20200565457344055,-0.11162245273590088,0.028609497472643852,-0.36016854643821716, -0.15721507370471954,-0.24040091037750244,-0.38939923048019409,-0.068248473107814789,-0.34558293223381042,-0.30356186628341675,-0.032162975519895554,-0.33585768938064575, 0.1389140784740448,-0.30097991228103638,-0.27405369281768799,0.22793912887573242,-0.0083129759877920151,0.24063971638679504,-0.044290538877248764,-0.11408902704715729, 
  /* [13][0][][] */ 0.11744491755962372,-0.17641656100749969,-0.1776871383190155,-0.26436790823936462,-0.0013339699944481254,0.52942675352096558,-0.20766808092594147,-0.29469743371009827, 0.079232312738895416,0.085214957594871521,-0.16881301999092102,-0.22397798299789429,-0.31610676646232605,-0.10406264662742615,-0.24254699051380157,-0.92986983060836792, 0.048952214419841766,0.056429602205753326,0.66657960414886475,-0.13740856945514679,-0.14446838200092316,-0.23840859532356262,-0.36538785696029663,-0.31657698750495911, 
  /* [14][0][][] */ 0.086696796119213104,0.13966897130012512,0.29597687721252441,-0.22944001853466034,0.022639753296971321,-0.037185750901699066,-0.27759402990341187,-0.036904178559780121, -0.065286532044410706,0.45979610085487366,0.3707578182220459,-0.16076548397541046,-0.038224503397941589,-0.081957139074802399,-0.098029576241970062,-0.14571553468704224, 0.30984047055244446,-0.068268381059169769,0.23908360302448273,-0.038718685507774353,-0.027701981365680695,-0.024819569662213326,0.068772889673709869,-0.11792263388633728, 
  /* [15][0][][] */ 0.13542525470256805,0.059062618762254715,0.17212918400764465,0.019721334800124168,-0.083157338201999664,-0.53267145156860352,-0.18261615931987762,0.46140339970588684, 0.070057511329650879,0.05700395256280899,0.22710363566875458,-0.016265353187918663,-0.037374507635831833,-0.50510931015014648,-0.34353417158126831,-0.045749545097351074, -0.062380660325288773,-0.20825777947902679,-0.080676868557929993,-0.029900962486863136,-0.13635893166065216,-0.38726529479026794,-0.22321979701519012,0.30343341827392578, 
};
const TfArray<4, int> tensor_dimension6 = { 4, { 16,1,3,8 } };
const MODEL_SECTION(EI_MODEL_SECTION) ALIGN(16) float tensor_data7[8*1*3*13] = { 
  /* [0][0][][] */ -0.057275358587503433,-0.13953933119773865,-0.033565454185009003,-0.094051361083984375,-0.34343770146369934,0.00671364925801754,0.15200969576835632,-0.12678620219230652,-0.059561587870121002,-0.14097802340984344,0.34692910313606262,-0.02133617177605629,-0.23523925244808197, -0.62055027484893799,-0.51621752977371216,0.14083069562911987,-0.075471676886081696,-0.17805831134319305,0.086974143981933594,0.19404232501983643,0.032522536814212799,-0.13878832757472992,-0.02746468223631382,0.24317644536495209,0.028101222589612007,-0.1120433434844017, -0.47367843985557556,-0.42044997215270996,0.18512815237045288,-0.37313950061798096,-0.16894848644733429,0.23304112255573273,0.21053023636341095,-0.098766379058361053,0.12038981169462204,-0.11632774770259857,0.39428606629371643,0.12312006950378418,0.11686193197965622, 
  /* [1][0][][] */ -0.26610565185546875,-0.51493865251541138,-0.023309709504246712,0.02220546267926693,-0.31193804740905762,0.37324032187461853,-0.014553559944033623,0.14493879675865173,0.073902629315853119,0.14649897813796997,-0.0031866284552961588,-0.1118120476603508,0.086772464215755463, -0.57620638608932495,0.049571063369512558,0.055975452065467834,-0.33286911249160767,-0.23472857475280762,0.55213409662246704,0.10195303708314896,-0.011075997725129128,0.082956351339817047,0.19457785785198212,-0.19092249870300293,0.10260164737701416,-0.008480854332447052, -0.24932165443897247,-0.14551062881946564,-0.24354670941829681,-0.26088452339172363,-0.4938957691192627,0.1503298431634903,-0.14048381149768829,0.42927160859107971,0.058979008346796036,0.090442873537540436,-0.16713845729827881,-0.19091980159282684,-0.020931083709001541, 
  /* [2][0][][] */ 0.23695558309555054,0.078094318509101868,0.17736722528934479,0.00102062220685184,-0.298005610704422,0.091015905141830444,0.5963672399520874,-0.23684015870094299,-0.11926746368408203,0.060562759637832642,0.24746726453304291,-0.049786955118179321,0.22421380877494812, -0.63449293375015259,-0.38310456275939941,0.1386134922504425,0.023982180282473564,-0.22668054699897766,0.04387325793504715,0.14096905291080475,0.15293198823928833,-0.01178609486669302,-0.23482590913772583,-0.28581428527832031,0.22430233657360077,0.073609285056591034, -0.76474928855895996,-0.51445156335830688,-0.095970697700977325,-0.17682370543479919,-0.10296650230884552,0.45545190572738647,0.033304572105407715,0.0031573954038321972,0.1511448472738266,0.1103542298078537,-0.019638696685433388,-0.35032579302787781,0.30599263310432434, 
  /* [3][0][][] */ -0.35909062623977661,-0.13480871915817261,0.1314273476600647,-0.58573299646377563,0.51373833417892456,0.098617061972618103,0.22929038107395172,0.07675006240606308,-0.23929817974567413,-0.21655352413654327,0.14152739942073822,0.41571724414825439,-0.21102669835090637, -0.11276645213365555,0.043511554598808289,-0.23692223429679871,-0.020730162039399147,0.17491054534912109,0.40929809212684631,0.017445268109440804,0.011802059598267078,-0.16298803687095642,-0.26464834809303284,0.011485964059829712,0.097766168415546417,-0.21822872757911682, -0.26132321357727051,-0.056108932942152023,-0.028510725125670433,-0.26838380098342896,0.54146063327789307,0.022185644134879112,0.067309938371181488,-0.13209877908229828,-0.15846548974514008,-0.14035680890083313,-0.10262122005224228,0.10711191594600677,0.026033971458673477, 
  /* [4][0][][] */ -0.033928703516721725,-0.096546642482280731,0.13025486469268799,0.2927347719669342,-0.4409719705581665,-0.19169317185878754,-0.43045255541801453,0.17798426747322083,0.049272652715444565,0.38108634948730469,-0.46224513649940491,0.16338431835174561,0.31260567903518677, 0.36370012164115906,0.18229994177818298,0.70614683628082275,-0.10841865092515945,-0.12596540153026581,0.12257461249828339,-0.37449413537979126,-0.1639673113822937,-0.13793490827083588,-0.1395932137966156,-0.09313134104013443,-0.075075052678585052,-0.07571546733379364, -0.57569772005081177,0.055282585322856903,0.20027938485145569,0.07857377827167511,-0.061058912426233292,-0.080210424959659576,-0.49734562635421753,-0.11497184634208679,-0.094398729503154755,0.011584934778511524,-0.0082757333293557167,0.0059725507162511349,0.057635381817817688, 
  /* [5][0][][] */ -0.24392431974411011,-0.12516002357006073,0.0035503939725458622,-0.43035095930099487,-0.29401662945747375,-0.029323449358344078,0.22404931485652924,0.045688018202781677,0.43174538016319275,-0.17444694042205811,-0.12066170573234558,0.016824599355459213,-0.051529120653867722, 0.28659248352050781,0.052721232175827026,0.12586311995983124,-0.70738345384597778,-0.44676521420478821,0.11147867143154144,0.15714859962463379,-0.25797685980796814,0.2266230434179306,0.41106218099594116,-0.20180855691432953,-0.21154074370861053,-0.30934756994247437, -0.09345833957195282,-0.053636368364095688,-0.53425943851470947,-0.1430853009223938,-0.36510938405990601,0.331419438123703,0.28548014163970947,-0.18913741409778595,0.21497516334056854,-0.24022573232650757,-0.046111609786748886,0.0029806005768477917,0.17738938331604004, 
  /* [6][0][][] */ 0.17657718062400818,0.6294293999671936,0.20358093082904816,0.016979258507490158,0.15996232628822327,0.31820774078369141,-0.17135770618915558,0.076797321438789368,0.021840730682015419,-0.40892112255096436,-0.1460852175951004,0.23730050027370453,-0.37083896994590759, -0.12787923216819763,0.47244372963905334,-0.079051189124584198,-0.228534996509552,0.24676139652729034,0.20172694325447083,0.087103426456451416,0.086556732654571533,0.054982453584671021,-0.37981972098350525,-0.090503610670566559,-0.056386232376098633,-0.092691130936145782, 0.50548577308654785,0.14158987998962402,-0.12753991782665253,-0.19446100294589996,0.38981732726097107,0.068670980632305145,0.31236428022384644,0.091096147894859314,0.080383516848087311,-0.095567062497138977,-0.59036678075790405,0.27503946423530579,-0.11750839650630951, 
  /* [7][0][][] */ -0.060698229819536209,-0.10640633106231689,0.31801480054855347,-0.082319155335426331,0.34708452224731445,0.078128509223461151,-0.31846645474433899,0.2210686057806015,-0.2125818282365799,-0.14979004859924316,0.35362455248832703,-0.031532760709524155,0.13589733839035034, -0.35998672246932983,-0.19377903640270233,0.32808992266654968,0.089565113186836243,0.39511954784393311,-0.051085278391838074,-0.34200969338417053,0.034171078354120255,0.27335858345031738,-0.2409694492816925,0.19828462600708008,-0.035827338695526123,0.038289792835712433, 0.50298118591308594,-0.42352315783500671,0.42096859216690063,0.20229150354862213,0.11417591571807861,-0.0092258835211396217,-0.23311610519886017,0.16870374977588654,-0.21154636144638062,-0.16673235595226288,0.36251315474510193,-0.1921067088842392,0.15263646841049194, 
};
const TfArray<4, int> tensor_dimension7 = { 4, { 8,1,3,13 } };
const MODEL_SECTION(EI_MODEL_SECTION) ALIGN(16) float tensor_data8[4*208] = { 
  0.10280609875917435, -0.04897284135222435, -0.077787257730960846, -0.16039930284023285, -0.13730001449584961, -0.25412800908088684, -0.43615680932998657, -0.13784509897232056, -0.11643499135971069, 0.029977895319461823, 0.1607251763343811, -0.18038499355316162, -0.1008194163441658, 0.29697659611701965, -0.067786403000354767, -0.26372036337852478, 0.063345655798912048, 0.072056517004966736, -0.18070591986179352, -0.22166569530963898, -0.11808116734027863, 0.062105458229780197, -0.41867524385452271, -0.048210591077804565, -0.0030836206860840321, 0.32572066783905029, -0.38116008043289185, -0.33539548516273499, -0.32288971543312073, 0.32588386535644531, 0.014804502949118614, -0.40363234281539917, 0.04179546982049942, 0.18230840563774109, -0.036832120269536972, -0.317384272813797, 0.11696171015501022, 0.043702941387891769, 0.0051979417912662029, 0.02999233640730381, -0.11540179699659348, -0.2534981369972229, -0.15051475167274475, -0.37885567545890808, -0.00590152433142066, 0.40176001191139221, 0.1007465273141861, -0.37603381276130676, -0.18903934955596924, 0.25981593132019043, -0.19326744973659515, -0.3270207941532135, -0.34818503260612488, 0.098649680614471436, -0.10909855365753174, 0.0023282701149582863, -0.19332650303840637, 0.051507756114006042, 0.014122594147920609, -0.66179734468460083, -0.39879071712493896, -0.19832473993301392, 0.11201179027557373, 0.043224446475505829, -0.21189545094966888, 0.33316886425018311, -0.19593392312526703, -0.23498086631298065, -0.34794142842292786, 0.098843060433864594, -0.18252174556255341, 0.075601682066917419, -0.44456085562705994, -0.016608914360404015, -0.18516601622104645, -0.45443969964981079, -0.51811307668685913, 0.33719828724861145, 0.27427256107330322, 0.045397449284791946, 0.00055629760026931763, 0.27285262942314148, 0.22508202493190765, -0.60734677314758301, -0.35422196984291077, -0.014346117153763771, 0.0085540348663926125, 0.21812935173511505, -0.36091390252113342, 0.035213429480791092, -0.36747843027114868, -0.37005308270454407, -0.47373661398887634, 0.19237582385540009, 0.43087387084960938, -0.23368629813194275, 0.073589108884334564, 0.22665475308895111, -0.24637679755687714, -0.21538166701793671, -0.28312602639198303, 0.36933654546737671, 0.22473828494548798, -0.11717575043439865, -0.11413200944662094, 0.20903585851192474, -0.33394253253936768, -0.72880244255065918, -0.51518380641937256, 0.26525211334228516, 0.25566661357879639, -0.14669755101203918, 0.13849730789661407, 0.34460842609405518, 0.019480152055621147, -0.54997414350509644, -0.33546257019042969, 0.1167498379945755, -0.26856076717376709, -0.03385327011346817, -0.21112369000911713, 0.287382572889328, -0.26058167219161987, -0.62526708841323853, 0.11156829446554184, 0.24773819744586945, 0.21854491531848907, -0.16847057640552521, 0.2359297126531601, 0.36808809638023376, 0.10636470466852188, -0.32295295596122742, -0.18176102638244629, 0.27132305502891541, 0.20482337474822998, 0.071485422551631927, 0.09563571959733963, 0.089718714356422424, -0.086565472185611725, -0.8627467155456543, -0.37035956978797913, 0.078082971274852753, 0.36514854431152344, 0.11629101634025574, 0.23084443807601929, 0.45119607448577881, 0.10935568809509277, -0.26349148154258728, 0.068210028111934662, 0.13045629858970642, 0.22505266964435577, 0.37118777632713318, 0.005120367743074894, 0.45056098699569702, -0.41650041937828064, 0.072776645421981812, -0.12042365968227386, 0.045945912599563599, 0.39767941832542419, -0.12130748480558395, -0.20617862045764923, -0.095210008323192596, 0.070162013173103333, -0.073086917400360107, 0.17965929210186005, 0.31408333778381348, -0.1173202246427536, 0.12655922770500183, -0.44720911979675293, 0.21303974092006683, 0.17549373209476471, -0.5843578577041626, -0.41260042786598206, -0.23061235249042511, 0.22533594071865082, -0.10278438776731491, 0.0083146216347813606, 0.1813790500164032, -0.17295430600643158, -0.17200130224227905, -0.087538659572601318, 0.077147491276264191, -0.33784058690071106, 0.14798025786876678, 0.02022562175989151, 0.27102932333946228, -0.019753690809011459, -0.44524586200714111, 0.11554113775491714, 0.32208973169326782, -0.007026277482509613, -0.050157111138105392, -0.099956624209880829, -0.16521283984184265, -0.069174796342849731, -0.18949037790298462, -0.55400651693344116, 0.055622156709432602, -0.083072490990161896, -0.084976792335510254, -0.41872483491897583, 0.22829274833202362, -0.5405961275100708, -0.41929459571838379, -0.23177167773246765, 0.085718207061290741, 0.14406274259090424, 0.02898884192109108, 
  0.24430152773857117, 0.17698788642883301, 0.18402664363384247, -0.76772987842559814, -0.54848265647888184, 0.064668834209442139, 0.029307454824447632, 0.19448600709438324, -0.38961002230644226, -0.54468625783920288, -0.81894850730895996, 0.37039065361022949, 0.23416674137115479, -0.60627949237823486, 0.13304486870765686, 0.0019236501539126039, 0.17513398826122284, -0.075412385165691376, 0.091088950634002686, -0.24968670308589935, -0.75071370601654053, -0.1984657496213913, 0.15604747831821442, 0.075515545904636383, -0.012514003552496433, -0.11489379405975342, -0.50640100240707397, 0.46908095479011536, 0.23894381523132324, -0.21566247940063477, -0.0096180122345685959, -0.16203641891479492, 0.27199664711952209, -0.12088804692029953, 0.17631816864013672, -0.4771992564201355, -0.18413420021533966, -0.50499832630157471, 0.0035831090062856674, -0.091077029705047607, 0.041886158287525177, 0.19315914809703827, -0.30259495973587036, 0.35538411140441895, 0.045216362923383713, -0.34820869565010071, -0.019224982708692551, -0.14283449947834015, 0.25886666774749756, -0.11800204217433929, 0.41889303922653198, -0.24553340673446655, -0.3926486074924469, -0.18983261287212372, -0.10457117855548859, -0.37492617964744568, -0.22455473244190216, 0.018356097862124443, 0.085507720708847046, 0.16656120121479034, 0.030875395983457565, -0.073985911905765533, -0.064107969403266907, -0.11999376863241196, 0.26217535138130188, -0.51797270774841309, 0.24867071211338043, 0.054046966135501862, -0.43524014949798584, -0.25732719898223877, 0.061279814690351486, -0.27311953902244568, 0.1558128297328949, 0.041387144476175308, 0.16809168457984924, 0.11863518506288528, 0.23809362947940826, 0.16384772956371307, -0.3003174364566803, -0.19806014001369476, 0.22218450903892517, -0.34030932188034058, 0.089376047253608704, -0.40801379084587097, -0.023409830406308174, -0.42776578664779663, -0.3443659245967865, -0.16866844892501831, -0.14112530648708344, 0.34803062677383423, -0.012110678479075432, 0.23492002487182617, 0.1882234513759613, 0.010282452218234539, -0.2453620582818985, -0.8864433765411377, 0.13236533105373383, -0.23052391409873962, 0.22236970067024231, -0.16158285737037659, 0.26882681250572205, -0.42707493901252747, -0.22355936467647552, -0.0839981809258461, 0.040188197046518326, 0.17603601515293121, -0.20146125555038452, 0.17793133854866028, 0.22542890906333923, 0.047159943729639053, -0.044776879251003265, -0.71349078416824341, -0.035934802144765854, -0.28390869498252869, 0.040964312851428986, -0.37305548787117004, -0.052109841257333755, -0.29885005950927734, -0.25322958827018738, -0.14942198991775513, -0.12930777668952942, 0.12919166684150696, -0.41667351126670837, 0.29193845391273499, -0.078316859900951385, -0.05380852147936821, -0.28920900821685791, -0.64900928735733032, 0.21235726773738861, 0.16118954122066498, 0.031003177165985107, -0.68280243873596191, 0.061266794800758362, -0.18571931123733521, -0.5138087272644043, -0.20086072385311127, -0.40633252263069153, 0.012877560220658779, -0.31310036778450012, 0.18708500266075134, 0.024273715913295746, -0.3100142776966095, -0.11711239814758301, -0.88712543249130249, 0.30136123299598694, -0.45204031467437744, 0.2368895560503006, -0.43052855134010315, -0.55569249391555786, -0.117667056620121, 0.09560849517583847, -0.20140191912651062, -0.16035455465316772, -0.11946683377027512, -0.33222880959510803, 0.15846838057041168, 0.26760447025299072, -0.11959407478570938, -0.22618533670902252, -0.45546090602874756, 0.1569659560918808, -0.46770042181015015, 0.29416924715042114, -0.43258532881736755, -0.43914791941642761, -0.46484613418579102, 0.18450254201889038, -0.45469850301742554, -0.2194800078868866, -0.33207374811172485, -0.42489799857139587, 0.26950946450233459, 0.10687131434679031, -0.78116488456726074, 0.1717895120382309, -0.33064490556716919, 0.3004629909992218, -0.091956019401550293, 0.22112670540809631, -0.63619577884674072, -0.14490912854671478, -0.31094029545783997, 0.086441725492477417, -0.087402865290641785, 0.05001537874341011, 0.10534785687923431, -0.53375524282455444, 0.44088128209114075, 0.18908502161502838, -0.45229330658912659, -0.10488978773355484, -0.41959318518638611, 0.23930567502975464, -0.055439766496419907, 0.20084913074970245, -0.31726202368736267, -0.2199961245059967, 0.0065331417135894299, 0.12139344215393066, 0.2127014547586441, -0.1621883362531662, -0.31933990120887756, -0.45525071024894714, 0.36408340930938721, 0.18128392100334167, -0.58661597967147827, -0.23834195733070374, -0.36748647689819336, 
  -0.47650626301765442, 0.13114896416664124, -0.35370722413063049, 0.11581785976886749, 0.34015125036239624, -0.0054282699711620808, -0.085477188229560852, 0.22753174602985382, 0.33997395634651184, -0.042712043970823288, 0.33544695377349854, 0.35613507032394409, 0.1023189052939415, -0.073863193392753601, 0.052307859063148499, 0.11031940579414368, -0.19286234676837921, 0.00029625388560816646, -0.39487266540527344, 0.45894607901573181, 0.38560691475868225, -0.09502159059047699, -0.24224638938903809, 0.015650516375899315, 0.20424570143222809, 0.037993017584085464, 0.33818933367729187, 0.41716486215591431, 0.065051570534706116, 0.13848644495010376, -0.14497266709804535, -0.0098344385623931885, -0.34363141655921936, 0.039143022149801254, -0.13646198809146881, 0.18482260406017303, 0.0081835221499204636, 0.0019458357710391283, -0.23985159397125244, 0.029720084741711617, 0.075353026390075684, 0.090888567268848419, 0.23392941057682037, 0.31699815392494202, 0.080228783190250397, 0.22005660831928253, -0.16503162682056427, 0.07344132661819458, 0.00061692262534052134, -0.12197914719581604, -0.050882920622825623, 0.29324033856391907, 0.19250026345252991, 0.11017554253339767, -0.19447785615921021, -0.052575398236513138, 0.35815173387527466, 0.28652971982955933, 0.13562729954719543, 0.010276990942656994, 0.11535832285881042, 0.067253760993480682, 0.0069676656275987625, 0.011063070967793465, -0.33800661563873291, -0.0025958919432014227, -0.2513231635093689, 0.10461917519569397, 0.049417793750762939, 0.10438355803489685, 0.11720515042543411, -0.031871959567070007, 0.039861999452114105, -0.035608794540166855, 0.31511697173118591, 0.034961279481649399, -0.029673686251044273, -0.27070724964141846, 0.087569460272789001, -0.049347739666700363, -0.30709671974182129, -0.10817889124155045, -0.35986146330833435, 0.31222569942474365, 0.087782517075538635, 0.30048343539237976, -0.17162120342254639, -0.12146379053592682, 0.35112494230270386, -0.030742296949028969, 0.29922494292259216, 0.056760624051094055, -0.018287600949406624, 0.086277373135089874, -0.19116595387458801, 0.04405561089515686, -0.26513171195983887, 0.032207723706960678, 5.1887822337448597e-05, 0.13457502424716949, -0.015134356915950775, -0.044026829302310944, -0.35108068585395813, 0.098777949810028076, 0.11116175353527069, 0.26906692981719971, 0.21055924892425537, 0.24389094114303589, -0.067224673926830292, -0.040839444845914841, 0.08723941445350647, 0.19746476411819458, -0.28858241438865662, -0.13429693877696991, -0.24337300658226013, 0.22763808071613312, 0.098129943013191223, 0.015524537302553654, -0.02781367301940918, 0.066287681460380554, 0.36345019936561584, -0.042571272701025009, 0.33988350629806519, 0.23796863853931427, -0.034874577075242996, -0.13434013724327087, 0.044060807675123215, 0.080425150692462921, -0.42361471056938171, -0.15028825402259827, -0.18814176321029663, 0.12754076719284058, 0.073607958853244781, 0.13811413943767548, -0.048638779670000076, -0.1913611888885498, 0.037355974316596985, 0.0080805914476513863, 0.17395879328250885, 0.073346637189388275, -0.17332674562931061, 0.22672514617443085, -0.00051563605666160583, 0.22899706661701202, 0.045316677540540695, -0.24939651787281036, -0.11706674844026566, 0.32916516065597534, 0.17253053188323975, 0.21214461326599121, -0.046776566654443741, -0.13600325584411621, 0.17045044898986816, -0.12294847518205643, 0.30483770370483398, 0.15198177099227905, 0.054458022117614746, -0.25905132293701172, -0.10760882496833801, 0.05787348747253418, -0.4038754403591156, 0.2380584180355072, -0.2306647002696991, 0.068665154278278351, 0.14565078914165497, 0.14548349380493164, -0.012281952425837517, 0.091578118503093719, 0.012003112584352493, 0.0072439420036971569, 0.29370683431625366, 0.21448574960231781, 0.32036885619163513, 0.22171837091445923, -0.11833047121763229, 0.0075596487149596214, -0.12511511147022247, 0.019050465896725655, -0.42550778388977051, 0.059901762753725052, 0.25465568900108337, 0.059668518602848053, 0.18301893770694733, 0.13611860573291779, 0.067694216966629028, -0.025674493983387947, 0.24024519324302673, 0.11154500395059586, 0.252847820520401, 0.36717548966407776, -0.33580294251441956, 0.078413426876068115, -0.33744287490844727, 0.18395709991455078, -0.22120805084705353, 0.13400572538375854, 0.6270451545715332, 0.24621285498142242, -0.033097822219133377, 0.11771558225154877, 0.45749998092651367, 0.15471036732196808, 0.53866028785705566, 0.172470822930336, -0.23794060945510864, 0.45335161685943604, -0.27973437309265137, -0.080101296305656433, 
  0.17517919838428497, -0.1063484326004982, 0.11243356764316559, 0.10638862103223801, 0.14990057051181793, -0.24275738000869751, 0.42249289155006409, -0.24213393032550812, 0.0034502886701375246, 0.086422078311443329, -0.019749678671360016, -0.51467293500900269, -0.3290553092956543, 0.21570852398872375, 0.13961219787597656, 0.3265431821346283, 0.17908936738967896, -0.082019507884979248, 0.018789850175380707, 0.059520293027162552, 0.21020743250846863, 0.081008732318878174, 0.34605914354324341, -0.18846830725669861, -0.22934015095233917, -0.42603817582130432, -0.049737799912691116, -0.80303138494491577, -0.32419401407241821, 0.043157082051038742, -0.034476574510335922, 0.1091831773519516, 0.11476380378007889, -0.060284223407506943, -0.030414942651987076, 0.084898583590984344, 0.035452045500278473, -0.0066812587901949883, 0.060737602412700653, -0.02202436700463295, -0.14579117298126221, -0.075173795223236084, -0.19533602893352509, -0.22837886214256287, -0.14168950915336609, -0.31566077470779419, -0.085269927978515625, 0.13875162601470947, 0.17665921151638031, 0.086401820182800293, 0.0070277010090649128, 0.13581059873104095, 0.24488881230354309, -0.055749252438545227, 0.16618949174880981, 0.16377855837345123, 0.077323570847511292, -0.20510381460189819, -0.12463262677192688, 0.04484834149479866, -0.13319209218025208, 0.23453716933727264, -0.085556499660015106, 0.0067556453868746758, 0.19240045547485352, -0.025236576795578003, 0.32035502791404724, 0.0098308688029646873, 0.28877928853034973, 0.10384096205234528, 0.082109905779361725, 0.12570632994174957, -0.13059186935424805, 0.1469414085149765, -0.091319672763347626, 0.15843260288238525, 0.026710988953709602, -0.086334072053432465, -0.11208305507898331, -0.075557895004749298, -0.03418327122926712, 0.11812544614076614, -0.16196414828300476, 0.38525810837745667, 0.041306264698505402, -0.091796703636646271, 0.32364737987518311, 0.13595663011074066, 0.030908320099115372, 0.013516219332814217, -0.0064896019175648689, -0.18740898370742798, -0.099779486656188965, -0.53758293390274048, -0.17837469279766083, 0.054377548396587372, 0.1406179666519165, -0.22397562861442566, 0.12410970777273178, 0.11617489159107208, -0.1377517431974411, -0.14402578771114349, 0.066941678524017334, -0.02763691358268261, -0.049498684704303741, -0.23893620073795319, 0.1021144911646843, -0.10558439046144485, 0.22141624987125397, -0.17011304199695587, 0.050426613539457321, 0.1981223076581955, 0.33452871441841125, -0.15623271465301514, -0.11274639517068863, 0.22939145565032959, 0.12461096048355103, -0.19299186766147614, 0.43132075667381287, 0.020362997427582741, -0.018591126427054405, -0.2863372266292572, 0.12972375750541687, -0.087720699608325958, 0.15173210203647614, -0.19732853770256042, -0.07894984632730484, 0.12390182912349701, 0.1127384826540947, -0.18067741394042969, 0.083381138741970062, 0.21289080381393433, 0.0057050795294344425, -0.23396624624729156, 0.33094874024391174, 0.1045699417591095, 0.19291141629219055, 0.11620951443910599, 0.018671121448278427, 0.20954197645187378, 0.34192177653312683, -0.17528839409351349, -0.17640011012554169, 0.22911655902862549, -0.08658512681722641, -0.10928298532962799, -0.110545314848423, 0.26280227303504944, 0.045898314565420151, 0.23506902158260345, 0.017598818987607956, 0.069591447710990906, 0.021249294281005859, -0.15419909358024597, 0.17580465972423553, -0.39978677034378052, -0.39387956261634827, -0.12887825071811676, 0.069711342453956604, 0.019695373252034187, 0.10117024928331375, 0.025829363614320755, 0.08251509815454483, 0.11922664195299149, -0.11598658561706543, -0.048652220517396927, 0.14985452592372894, 0.090638585388660431, 0.23603016138076782, 0.1288832426071167, -0.10054036974906921, -0.19200567901134491, 0.00036554806865751743, 0.05741056427359581, 0.20140731334686279, 0.15804471075534821, 0.21341517567634583, -0.037579189985990524, 0.14103099703788757, 0.2096293717622757, -0.07343272864818573, 0.17506685853004456, 0.02766432985663414, -0.15085577964782715, -0.11402128636837006, -0.12680503726005554, 0.01470220647752285, -0.21332800388336182, -0.054240617901086807, -0.059971295297145844, 0.055354375392198563, 0.058649361133575439, 0.13598552346229553, -0.12272652238607407, 0.21053561568260193, 0.0069470405578613281, -0.32928851246833801, -0.26679050922393799, -0.04894072562456131, -0.033247251063585281, -0.0079983696341514587, -0.18406176567077637, -0.18357494473457336, -0.24924992024898529, 0.02570728212594986, -0.28688138723373413, 0.15969772636890411, 0.031897872686386108, 
};
const TfArray<2, int> tensor_dimension8 = { 2, { 4,208 } };
const MODEL_SECTION(EI_MODEL_SECTION) ALIGN(16) float tensor_data9[4] = { -0.060832537710666656, 0.31421607732772827, 0.12288570404052734, -0.38541522622108459, };
const MODEL_SECTION(EI_MODEL_SECTION) ALIGN(8) int32_t tensor_data10[2] = { -1, 208, };
const TfArray<1, int> tensor_dimension10 = { 1, { 2 } };
const MODEL_SECTION(EI_MODEL_SECTION) ALIGN(16) int32_t tensor_data11[4] = { 1, 1, 50, 13, };
const TfArray<4, int> tensor_dimension12 = { 4, { 1,1,50,13 } };
const TfArray<4, int> tensor_dimension13 = { 4, { 1,1,50,8 } };
const TfArray<4, int> tensor_dimension14 = { 4, { 1,50,1,8 } };
const TfArray<4, int> tensor_dimension15 = { 4, { 1,25,1,8 } };
const TfArray<4, int> tensor_dimension16 = { 4, { 1,1,25,8 } };
const TfArray<4, int> tensor_dimension17 = { 4, { 1,1,25,16 } };
const TfArray<4, int> tensor_dimension18 = { 4, { 1,25,1,16 } };
const TfArray<4, int> tensor_dimension19 = { 4, { 1,13,1,16 } };
const TfArray<2, int> tensor_dimension20 = { 2, { 1,208 } };
const TfArray<2, int> tensor_dimension21 = { 2, { 1,4 } };
const TfLiteReshapeParams opdata0 = { { 0, 0, 0, 0, 0, 0, 0, 0, }, 0 };
const TfArray<2, int> inputs0 = { 2, { 0,11 } };
const TfArray<1, int> outputs0 = { 1, { 12 } };
const TfLiteConvParams opdata1 = { kTfLitePaddingSame, 1,1, kTfLiteActRelu, 1,1 };
const TfArray<3, int> inputs1 = { 3, { 12,7,2 } };
const TfArray<1, int> outputs1 = { 1, { 13 } };
const TfLiteReshapeParams opdata2 = { { 0, 0, 0, 0, 0, 0, 0, 0, }, 0 };
const TfArray<2, int> inputs2 = { 2, { 13,5 } };
const TfArray<1, int> outputs2 = { 1, { 14 } };
const TfLitePoolParams opdata3 = { kTfLitePaddingSame, 1,2, 1,2, kTfLiteActNone, { { 0,0, 0, 0 } } };
const TfArray<1, int> inputs3 = { 1, { 14 } };
const TfArray<1, int> outputs3 = { 1, { 15 } };
const TfLiteReshapeParams opdata4 = { { 0, 0, 0, 0, 0, 0, 0, 0, }, 0 };
const TfArray<2, int> inputs4 = { 2, { 15,4 } };
const TfArray<1, int> outputs4 = { 1, { 16 } };
const TfLiteConvParams opdata5 = { kTfLitePaddingSame, 1,1, kTfLiteActRelu, 1,1 };
const TfArray<3, int> inputs5 = { 3, { 16,6,1 } };
const TfArray<1, int> outputs5 = { 1, { 17 } };
const TfLiteReshapeParams opdata6 = { { 0, 0, 0, 0, 0, 0, 0, 0, }, 0 };
const TfArray<2, int> inputs6 = { 2, { 17,3 } };
const TfArray<1, int> outputs6 = { 1, { 18 } };
const TfLitePoolParams opdata7 = { kTfLitePaddingSame, 1,2, 1,2, kTfLiteActNone, { { 0,0, 0, 0 } } };
const TfArray<1, int> inputs7 = { 1, { 18 } };
const TfArray<1, int> outputs7 = { 1, { 19 } };
const TfLiteReshapeParams opdata8 = { { 0, 0, 0, 0, 0, 0, 0, 0, }, 0 };
const TfArray<2, int> inputs8 = { 2, { 19,10 } };
const TfArray<1, int> outputs8 = { 1, { 20 } };
const TfLiteFullyConnectedParams opdata9 = { kTfLiteActNone, kTfLiteFullyConnectedWeightsFormatDefault, false, false };
const TfArray<3, int> inputs9 = { 3, { 20,8,9 } };
const TfArray<1, int> outputs9 = { 1, { 21 } };
const TfLiteSoftmaxParams opdata10 = { 1 };
const TfArray<1, int> inputs10 = { 1, { 21 } };
const TfArray<1, int> outputs10 = { 1, { 22 } };
};

TensorInfo_t tensorData[] = {
{ kTfLiteArenaRw, kTfLiteFloat32, (int32_t*)(tensor_arena + 2608), (TfLiteIntArray*)&g0::tensor_dimension0, 2600, },
{ kTfLiteMmapRo, kTfLiteFloat32, (int32_t*)g0::tensor_data1, (TfLiteIntArray*)&g0::tensor_dimension1, 64, },
{ kTfLiteMmapRo, kTfLiteFloat32, (int32_t*)g0::tensor_data2, (TfLiteIntArray*)&g0::tensor_dimension2, 32, },
{ kTfLiteMmapRo, kTfLiteInt32, (int32_t*)g0::tensor_data3, (TfLiteIntArray*)&g0::tensor_dimension3, 16, },
{ kTfLiteMmapRo, kTfLiteInt32, (int32_t*)g0::tensor_data4, (TfLiteIntArray*)&g0::tensor_dimension3, 16, },
{ kTfLiteMmapRo, kTfLiteInt32, (int32_t*)g0::tensor_data5, (TfLiteIntArray*)&g0::tensor_dimension3, 16, },
{ kTfLiteMmapRo, kTfLiteFloat32, (int32_t*)g0::tensor_data6, (TfLiteIntArray*)&g0::tensor_dimension6, 1536, },
{ kTfLiteMmapRo, kTfLiteFloat32, (int32_t*)g0::tensor_data7, (TfLiteIntArray*)&g0::tensor_dimension7, 1248, },
{ kTfLiteMmapRo, kTfLiteFloat32, (int32_t*)g0::tensor_data8, (TfLiteIntArray*)&g0::tensor_dimension8, 3328, },
{ kTfLiteMmapRo, kTfLiteFloat32, (int32_t*)g0::tensor_data9, (TfLiteIntArray*)&g0::tensor_dimension3, 16, },
{ kTfLiteMmapRo, kTfLiteInt32, (int32_t*)g0::tensor_data10, (TfLiteIntArray*)&g0::tensor_dimension10, 8, },
{ kTfLiteMmapRo, kTfLiteInt32, (int32_t*)g0::tensor_data11, (TfLiteIntArray*)&g0::tensor_dimension3, 16, },
{ kTfLiteArenaRw, kTfLiteFloat32, (int32_t*)(tensor_arena + 0), (TfLiteIntArray*)&g0::tensor_dimension12, 2600, },
{ kTfLiteArenaRw, kTfLiteFloat32, (int32_t*)(tensor_arena + 2608), (TfLiteIntArray*)&g0::tensor_dimension13, 1600, },
{ kTfLiteArenaRw, kTfLiteFloat32, (int32_t*)(tensor_arena + 0), (TfLiteIntArray*)&g0::tensor_dimension14, 1600, },
{ kTfLiteArenaRw, kTfLiteFloat32, (int32_t*)(tensor_arena + 1600), (TfLiteIntArray*)&g0::tensor_dimension15, 800, },
{ kTfLiteArenaRw, kTfLiteFloat32, (int32_t*)(tensor_arena + 0), (TfLiteIntArray*)&g0::tensor_dimension16, 800, },
{ kTfLiteArenaRw, kTfLiteFloat32, (int32_t*)(tensor_arena + 1600), (TfLiteIntArray*)&g0::tensor_dimension17, 1600, },
{ kTfLiteArenaRw, kTfLiteFloat32, (int32_t*)(tensor_arena + 0), (TfLiteIntArray*)&g0::tensor_dimension18, 1600, },
{ kTfLiteArenaRw, kTfLiteFloat32, (int32_t*)(tensor_arena + 1600), (TfLiteIntArray*)&g0::tensor_dimension19, 832, },
{ kTfLiteArenaRw, kTfLiteFloat32, (int32_t*)(tensor_arena + 0), (TfLiteIntArray*)&g0::tensor_dimension20, 832, },
{ kTfLiteArenaRw, kTfLiteFloat32, (int32_t*)(tensor_arena + 832), (TfLiteIntArray*)&g0::tensor_dimension21, 16, },
{ kTfLiteArenaRw, kTfLiteFloat32, (int32_t*)(tensor_arena + 0), (TfLiteIntArray*)&g0::tensor_dimension21, 16, },
};

#ifndef TF_LITE_STATIC_MEMORY
TfLiteNode tflNodes[11] = {
{ (TfLiteIntArray*)&g0::inputs0, (TfLiteIntArray*)&g0::outputs0, (TfLiteIntArray*)&g0::inputs0, nullptr, nullptr, const_cast<void*>(static_cast<const void*>(&g0::opdata0)), nullptr, 0, },
{ (TfLiteIntArray*)&g0::inputs1, (TfLiteIntArray*)&g0::outputs1, (TfLiteIntArray*)&g0::inputs1, nullptr, nullptr, const_cast<void*>(static_cast<const void*>(&g0::opdata1)), nullptr, 0, },
{ (TfLiteIntArray*)&g0::inputs2, (TfLiteIntArray*)&g0::outputs2, (TfLiteIntArray*)&g0::inputs2, nullptr, nullptr, const_cast<void*>(static_cast<const void*>(&g0::opdata2)), nullptr, 0, },
{ (TfLiteIntArray*)&g0::inputs3, (TfLiteIntArray*)&g0::outputs3, (TfLiteIntArray*)&g0::inputs3, nullptr, nullptr, const_cast<void*>(static_cast<const void*>(&g0::opdata3)), nullptr, 0, },
{ (TfLiteIntArray*)&g0::inputs4, (TfLiteIntArray*)&g0::outputs4, (TfLiteIntArray*)&g0::inputs4, nullptr, nullptr, const_cast<void*>(static_cast<const void*>(&g0::opdata4)), nullptr, 0, },
{ (TfLiteIntArray*)&g0::inputs5, (TfLiteIntArray*)&g0::outputs5, (TfLiteIntArray*)&g0::inputs5, nullptr, nullptr, const_cast<void*>(static_cast<const void*>(&g0::opdata5)), nullptr, 0, },
{ (TfLiteIntArray*)&g0::inputs6, (TfLiteIntArray*)&g0::outputs6, (TfLiteIntArray*)&g0::inputs6, nullptr, nullptr, const_cast<void*>(static_cast<const void*>(&g0::opdata6)), nullptr, 0, },
{ (TfLiteIntArray*)&g0::inputs7, (TfLiteIntArray*)&g0::outputs7, (TfLiteIntArray*)&g0::inputs7, nullptr, nullptr, const_cast<void*>(static_cast<const void*>(&g0::opdata7)), nullptr, 0, },
{ (TfLiteIntArray*)&g0::inputs8, (TfLiteIntArray*)&g0::outputs8, (TfLiteIntArray*)&g0::inputs8, nullptr, nullptr, const_cast<void*>(static_cast<const void*>(&g0::opdata8)), nullptr, 0, },
{ (TfLiteIntArray*)&g0::inputs9, (TfLiteIntArray*)&g0::outputs9, (TfLiteIntArray*)&g0::inputs9, nullptr, nullptr, const_cast<void*>(static_cast<const void*>(&g0::opdata9)), nullptr, 0, },
{ (TfLiteIntArray*)&g0::inputs10, (TfLiteIntArray*)&g0::outputs10, (TfLiteIntArray*)&g0::inputs10, nullptr, nullptr, const_cast<void*>(static_cast<const void*>(&g0::opdata10)), nullptr, 0, },
};
#else
TfLiteNode tflNodes[11] = {
{ (TfLiteIntArray*)&g0::inputs0, (TfLiteIntArray*)&g0::outputs0, (TfLiteIntArray*)&g0::inputs0, nullptr, const_cast<void*>(static_cast<const void*>(&g0::opdata0)), nullptr, 0, },
{ (TfLiteIntArray*)&g0::inputs1, (TfLiteIntArray*)&g0::outputs1, (TfLiteIntArray*)&g0::inputs1, nullptr, const_cast<void*>(static_cast<const void*>(&g0::opdata1)), nullptr, 0, },
{ (TfLiteIntArray*)&g0::inputs2, (TfLiteIntArray*)&g0::outputs2, (TfLiteIntArray*)&g0::inputs2, nullptr, const_cast<void*>(static_cast<const void*>(&g0::opdata2)), nullptr, 0, },
{ (TfLiteIntArray*)&g0::inputs3, (TfLiteIntArray*)&g0::outputs3, (TfLiteIntArray*)&g0::inputs3, nullptr, const_cast<void*>(static_cast<const void*>(&g0::opdata3)), nullptr, 0, },
{ (TfLiteIntArray*)&g0::inputs4, (TfLiteIntArray*)&g0::outputs4, (TfLiteIntArray*)&g0::inputs4, nullptr, const_cast<void*>(static_cast<const void*>(&g0::opdata4)), nullptr, 0, },
{ (TfLiteIntArray*)&g0::inputs5, (TfLiteIntArray*)&g0::outputs5, (TfLiteIntArray*)&g0::inputs5, nullptr, const_cast<void*>(static_cast<const void*>(&g0::opdata5)), nullptr, 0, },
{ (TfLiteIntArray*)&g0::inputs6, (TfLiteIntArray*)&g0::outputs6, (TfLiteIntArray*)&g0::inputs6, nullptr, const_cast<void*>(static_cast<const void*>(&g0::opdata6)), nullptr, 0, },
{ (TfLiteIntArray*)&g0::inputs7, (TfLiteIntArray*)&g0::outputs7, (TfLiteIntArray*)&g0::inputs7, nullptr, const_cast<void*>(static_cast<const void*>(&g0::opdata7)), nullptr, 0, },
{ (TfLiteIntArray*)&g0::inputs8, (TfLiteIntArray*)&g0::outputs8, (TfLiteIntArray*)&g0::inputs8, nullptr, const_cast<void*>(static_cast<const void*>(&g0::opdata8)), nullptr, 0, },
{ (TfLiteIntArray*)&g0::inputs9, (TfLiteIntArray*)&g0::outputs9, (TfLiteIntArray*)&g0::inputs9, nullptr, const_cast<void*>(static_cast<const void*>(&g0::opdata9)), nullptr, 0, },
{ (TfLiteIntArray*)&g0::inputs10, (TfLiteIntArray*)&g0::outputs10, (TfLiteIntArray*)&g0::inputs10, nullptr, const_cast<void*>(static_cast<const void*>(&g0::opdata10)), nullptr, 0, },
};
#endif

used_operators_e used_ops[] =
{OP_RESHAPE, OP_CONV_2D, OP_RESHAPE, OP_MAX_POOL_2D, OP_RESHAPE, OP_CONV_2D, OP_RESHAPE, OP_MAX_POOL_2D, OP_RESHAPE, OP_FULLY_CONNECTED, OP_SOFTMAX, };


// Indices into tflTensors and tflNodes for subgraphs
const size_t tflTensors_subgraph_index[] = {0, 23, };
const size_t tflNodes_subgraph_index[] = {0, 11, };

// Input/output tensors
static const int in_tensor_indices[] = {
  0, 
};

static const int out_tensor_indices[] = {
  22, 
};


size_t current_subgraph_index = 0;

static void init_tflite_tensor(size_t i, TfLiteTensor *tensor) {
  tensor->type = tensorData[i].type;
  tensor->is_variable = false;

#if defined(EI_CLASSIFIER_ALLOCATION_HEAP)
  tensor->allocation_type = tensorData[i].allocation_type;
#else
  tensor->allocation_type = (tensor_arena <= tensorData[i].data && tensorData[i].data < tensor_arena + kTensorArenaSize) ? kTfLiteArenaRw : kTfLiteMmapRo;
#endif
  tensor->bytes = tensorData[i].bytes;
  tensor->dims = tensorData[i].dims;

#if defined(EI_CLASSIFIER_ALLOCATION_HEAP)
  if(tensor->allocation_type == kTfLiteArenaRw){
    uint8_t* start = (uint8_t*) ((uintptr_t)tensorData[i].data + (uintptr_t) tensor_arena);

    tensor->data.data =  start;
  }
  else {
      tensor->data.data = tensorData[i].data;
  }
#else
  tensor->data.data = tensorData[i].data;
#endif // EI_CLASSIFIER_ALLOCATION_HEAP
  tensor->quantization.type = kTfLiteNoQuantization;

}

static void init_tflite_eval_tensor(int i, TfLiteEvalTensor *tensor) {

  tensor->type = tensorData[i].type;

  tensor->dims = tensorData[i].dims;

#if defined(EI_CLASSIFIER_ALLOCATION_HEAP)
  auto allocation_type = tensorData[i].allocation_type;
  if(allocation_type == kTfLiteArenaRw) {
    uint8_t* start = (uint8_t*) ((uintptr_t)tensorData[i].data + (uintptr_t) tensor_arena);

    tensor->data.data =  start;
  }
  else {
    tensor->data.data = tensorData[i].data;
  }
#else
  tensor->data.data = tensorData[i].data;
#endif // EI_CLASSIFIER_ALLOCATION_HEAP
}

static void* overflow_buffers[EI_MAX_OVERFLOW_BUFFER_COUNT];
static size_t overflow_buffers_ix = 0;
static void * AllocatePersistentBufferImpl(struct TfLiteContext* ctx,
                                       size_t bytes) {
  void *ptr;
  uint32_t align_bytes = (bytes % 16) ? 16 - (bytes % 16) : 0;

  if (current_location - (bytes + align_bytes) < tensor_boundary) {
    if (overflow_buffers_ix > EI_MAX_OVERFLOW_BUFFER_COUNT - 1) {
      ei_printf("ERR: Failed to allocate persistent buffer of size %d, does not fit in tensor arena and reached EI_MAX_OVERFLOW_BUFFER_COUNT\n",
        (int)bytes);
      return NULL;
    }

    // OK, this will look super weird, but.... we have CMSIS-NN buffers which
    // we cannot calculate beforehand easily.
    ptr = ei_calloc(bytes, 1);
    if (ptr == NULL) {
      ei_printf("ERR: Failed to allocate persistent buffer of size %d\n", (int)bytes);
      return NULL;
    }
    overflow_buffers[overflow_buffers_ix++] = ptr;
    return ptr;
  }

  current_location -= bytes;

  // align to the left aligned boundary of 16 bytes
  current_location -= 15; // for alignment
  current_location += 16 - ((uintptr_t)(current_location) & 15);

  ptr = current_location;
  memset(ptr, 0, bytes);

  return ptr;
}

typedef struct {
  size_t bytes;
  void *ptr;
} scratch_buffer_t;

static scratch_buffer_t scratch_buffers[EI_MAX_SCRATCH_BUFFER_COUNT];
static size_t scratch_buffers_ix = 0;

static TfLiteStatus RequestScratchBufferInArenaImpl(struct TfLiteContext* ctx, size_t bytes,
                                                int* buffer_idx) {
  if (scratch_buffers_ix > EI_MAX_SCRATCH_BUFFER_COUNT - 1) {
    ei_printf("ERR: Failed to allocate scratch buffer of size %d, reached EI_MAX_SCRATCH_BUFFER_COUNT\n",
      (int)bytes);
    return kTfLiteError;
  }

  scratch_buffer_t b;
  b.bytes = bytes;

  b.ptr = AllocatePersistentBufferImpl(ctx, b.bytes);
  if (!b.ptr) {
    ei_printf("ERR: Failed to allocate scratch buffer of size %d\n",
      (int)bytes);
    return kTfLiteError;
  }

  scratch_buffers[scratch_buffers_ix] = b;
  *buffer_idx = scratch_buffers_ix;

  scratch_buffers_ix++;

  return kTfLiteOk;
}

static void* GetScratchBufferImpl(struct TfLiteContext* ctx, int buffer_idx) {
  if (buffer_idx > (int)scratch_buffers_ix) {
    return NULL;
  }
  return scratch_buffers[buffer_idx].ptr;
}

static const uint16_t TENSOR_IX_UNUSED = 0x7FFF;

static void ResetTensors() {
  for (size_t ix = 0; ix < MAX_TFL_TENSOR_COUNT; ix++) {
    tflTensors[ix].index = TENSOR_IX_UNUSED;
  }
  for (size_t ix = 0; ix < MAX_TFL_EVAL_COUNT; ix++) {
    tflEvalTensors[ix].index = TENSOR_IX_UNUSED;
  }
}

static TfLiteTensor* GetTensorImpl(const struct TfLiteContext* context,
                               int tensor_idx) {

  tensor_idx = tflTensors_subgraph_index[current_subgraph_index] + tensor_idx;

  for (size_t ix = 0; ix < MAX_TFL_TENSOR_COUNT; ix++) {
    // already used? OK!
    if (tflTensors[ix].index == tensor_idx) {
      return &tflTensors[ix].tensor;
    }
    // passed all the ones we've used, so end of the list?
    if (tflTensors[ix].index == TENSOR_IX_UNUSED) {
      // init the tensor
      init_tflite_tensor(tensor_idx, &tflTensors[ix].tensor);
      tflTensors[ix].index = tensor_idx;
      return &tflTensors[ix].tensor;
    }
  }

  ei_printf("ERR: GetTensor called beyond MAX_TFL_TENSOR_COUNT (%d)\n", MAX_TFL_TENSOR_COUNT);
  return nullptr;
}

static TfLiteEvalTensor* GetEvalTensorImpl(const struct TfLiteContext* context,
                                       int tensor_idx) {

  tensor_idx = tflTensors_subgraph_index[current_subgraph_index] + tensor_idx;

  for (size_t ix = 0; ix < MAX_TFL_EVAL_COUNT; ix++) {
    // already used? OK!
    if (tflEvalTensors[ix].index == tensor_idx) {
      return &tflEvalTensors[ix].tensor;
    }
    // passed all the ones we've used, so end of the list?
    if (tflEvalTensors[ix].index == TENSOR_IX_UNUSED) {
      // init the tensor
      init_tflite_eval_tensor(tensor_idx, &tflEvalTensors[ix].tensor);
      tflEvalTensors[ix].index = tensor_idx;
      return &tflEvalTensors[ix].tensor;
    }
  }

  ei_printf("ERR: GetTensor called beyond MAX_TFL_EVAL_COUNT (%d)\n", (int)MAX_TFL_EVAL_COUNT);
  return nullptr;
}

class EonMicroContext : public MicroContext {
 public:
 
  EonMicroContext(): MicroContext(nullptr, nullptr, nullptr) { }

  void* AllocatePersistentBuffer(size_t bytes) {
    return AllocatePersistentBufferImpl(nullptr, bytes);
  }

  TfLiteStatus RequestScratchBufferInArena(size_t bytes,
                                           int* buffer_index) {
  return RequestScratchBufferInArenaImpl(nullptr, bytes, buffer_index);
  }

  void* GetScratchBuffer(int buffer_index) {
    return GetScratchBufferImpl(nullptr, buffer_index);
  }
 
  TfLiteTensor* AllocateTempTfLiteTensor(int tensor_index) {
    return GetTensorImpl(nullptr, tensor_index);
  }

  void DeallocateTempTfLiteTensor(TfLiteTensor* tensor) {
    return;
  }

  bool IsAllTempTfLiteTensorDeallocated() {
    return true;
  }

  TfLiteEvalTensor* GetEvalTensor(int tensor_index) {
    return GetEvalTensorImpl(nullptr, tensor_index);
  }

};


} // namespace

TfLiteStatus tflite_learn_1057563_3_init( void*(*alloc_fnc)(size_t,size_t) ) {
#ifdef EI_CLASSIFIER_ALLOCATION_HEAP
  tensor_arena = (uint8_t*) alloc_fnc(16, kTensorArenaSize);
  if (!tensor_arena) {
    ei_printf("ERR: failed to allocate tensor arena\n");
    return kTfLiteError;
  }
#else
  memset(tensor_arena, 0, kTensorArenaSize);
#endif
  tensor_boundary = tensor_arena;
  current_location = tensor_arena + kTensorArenaSize;

  EonMicroContext micro_context_;
  
  // Set microcontext as the context ptr
  ctx.impl_ = static_cast<void*>(&micro_context_);
  // Setup tflitecontext functions
  ctx.AllocatePersistentBuffer = &AllocatePersistentBufferImpl;
  ctx.RequestScratchBufferInArena = &RequestScratchBufferInArenaImpl;
  ctx.GetScratchBuffer = &GetScratchBufferImpl;
  ctx.GetTensor = &GetTensorImpl;
  ctx.GetEvalTensor = &GetEvalTensorImpl;
  ctx.ReportError = &MicroContextReportOpError;

  ctx.tensors_size = 23;
  for (size_t i = 0; i < 23; ++i) {
    TfLiteTensor tensor;
    init_tflite_tensor(i, &tensor);
    if (tensor.allocation_type == kTfLiteArenaRw) {
      auto data_end_ptr = (uint8_t*)tensor.data.data + tensorData[i].bytes;
      if (data_end_ptr > tensor_boundary) {
        tensor_boundary = data_end_ptr;
      }
    }
  }

  if (tensor_boundary > current_location /* end of arena size */) {
    ei_printf("ERR: tensor arena is too small, does not fit model - even without scratch buffers\n");
    return kTfLiteError;
  }

  registrations[OP_RESHAPE] = Register_RESHAPE();
  registrations[OP_CONV_2D] = Register_CONV_2D();
  registrations[OP_MAX_POOL_2D] = Register_MAX_POOL_2D();
  registrations[OP_FULLY_CONNECTED] = Register_FULLY_CONNECTED();
  registrations[OP_SOFTMAX] = Register_SOFTMAX();

  for (size_t g = 0; g < 1; ++g) {
    current_subgraph_index = g;
    for(size_t i = tflNodes_subgraph_index[g]; i < tflNodes_subgraph_index[g+1]; ++i) {
      if (registrations[used_ops[i]].init) {
        tflNodes[i].user_data = registrations[used_ops[i]].init(&ctx, (const char*)tflNodes[i].builtin_data, 0);
      }
    }
  }
  current_subgraph_index = 0;

  for(size_t g = 0; g < 1; ++g) {
    current_subgraph_index = g;
    for(size_t i = tflNodes_subgraph_index[g]; i < tflNodes_subgraph_index[g+1]; ++i) {
      if (registrations[used_ops[i]].prepare) {
        ResetTensors();
        TfLiteStatus status = registrations[used_ops[i]].prepare(&ctx, &tflNodes[i]);
        if (status != kTfLiteOk) {
          return status;
        }
      }
    }
  }
  current_subgraph_index = 0;

  return kTfLiteOk;
}

TfLiteStatus tflite_learn_1057563_3_input(int index, TfLiteTensor *tensor) {
  init_tflite_tensor(in_tensor_indices[index], tensor);
  return kTfLiteOk;
}

TfLiteStatus tflite_learn_1057563_3_output(int index, TfLiteTensor *tensor) {
  init_tflite_tensor(out_tensor_indices[index], tensor);
  return kTfLiteOk;
}

TfLiteStatus tflite_learn_1057563_3_invoke() {
  for (size_t i = 0; i < 11; ++i) {
    ResetTensors();

    TfLiteStatus status = registrations[used_ops[i]].invoke(&ctx, &tflNodes[i]);

#if EI_CLASSIFIER_PRINT_STATE
    ei_printf("layer %lu\n", i);
    ei_printf("    inputs:\n");
    for (size_t ix = 0; ix < tflNodes[i].inputs->size; ix++) {
      auto d = tensorData[tflNodes[i].inputs->data[ix]];

      size_t data_ptr = (size_t)d.data;

      if (d.allocation_type == kTfLiteArenaRw) {
        data_ptr = (size_t)tensor_arena + data_ptr;
      }

      if (d.type == TfLiteType::kTfLiteInt8) {
        int8_t* data = (int8_t*)data_ptr;
        ei_printf("        %lu (%zu bytes, ptr=%p, alloc_type=%d, type=%d): ", ix, d.bytes, data, (int)d.allocation_type, (int)d.type);
        for (size_t jx = 0; jx < d.bytes; jx++) {
          ei_printf("%d ", data[jx]);
        }
      }
      else {
        float* data = (float*)data_ptr;
        ei_printf("        %lu (%zu bytes, ptr=%p, alloc_type=%d, type=%d): ", ix, d.bytes, data, (int)d.allocation_type, (int)d.type);
        for (size_t jx = 0; jx < d.bytes / 4; jx++) {
          ei_printf("%f ", data[jx]);
        }
      }
      ei_printf("\n");
    }
    ei_printf("\n");

    ei_printf("    outputs:\n");
    for (size_t ix = 0; ix < tflNodes[i].outputs->size; ix++) {
      auto d = tensorData[tflNodes[i].outputs->data[ix]];

      size_t data_ptr = (size_t)d.data;

      if (d.allocation_type == kTfLiteArenaRw) {
        data_ptr = (size_t)tensor_arena + data_ptr;
      }

      if (d.type == TfLiteType::kTfLiteInt8) {
        int8_t* data = (int8_t*)data_ptr;
        ei_printf("        %lu (%zu bytes, ptr=%p, alloc_type=%d, type=%d): ", ix, d.bytes, data, (int)d.allocation_type, (int)d.type);
        for (size_t jx = 0; jx < d.bytes; jx++) {
          ei_printf("%d ", data[jx]);
        }
      }
      else {
        float* data = (float*)data_ptr;
        ei_printf("        %lu (%zu bytes, ptr=%p, alloc_type=%d, type=%d): ", ix, d.bytes, data, (int)d.allocation_type, (int)d.type);
        for (size_t jx = 0; jx < d.bytes / 4; jx++) {
          ei_printf("%f ", data[jx]);
        }
      }
      ei_printf("\n");
    }
    ei_printf("\n");
#endif // EI_CLASSIFIER_PRINT_STATE

    if (status != kTfLiteOk) {
      return status;
    }
  }
  return kTfLiteOk;
}

TfLiteStatus tflite_learn_1057563_3_reset( void (*free_fnc)(void* ptr) ) {
#ifdef EI_CLASSIFIER_ALLOCATION_HEAP
  free_fnc(tensor_arena);
#endif

  // scratch buffers are allocated within the arena, so just reset the counter so memory can be reused
  scratch_buffers_ix = 0;

  // overflow buffers are on the heap, so free them first
  for (size_t ix = 0; ix < overflow_buffers_ix; ix++) {
    ei_free(overflow_buffers[ix]);
  }
  overflow_buffers_ix = 0;
  return kTfLiteOk;
}
